<?xml version="1.0"?>
<opencv_storage>
<cascade>
  <stageType>BOOST</stageType>
  <featureType>HAAR</featureType>
  <height>50</height>
  <width>50</width>
  <stageParams>
    <boostType>GAB</boostType>
    <minHitRate>9.9500000476837158e-001</minHitRate>
    <maxFalseAlarm>5.0000000000000000e-001</maxFalseAlarm>
    <weightTrimRate>9.4999999999999996e-001</weightTrimRate>
    <maxDepth>1</maxDepth>
    <maxWeakCount>100</maxWeakCount></stageParams>
  <featureParams>
    <maxCatCount>0</maxCatCount>
    <featSize>1</featSize>
    <mode>ALL</mode></featureParams>
  <stageNum>4</stageNum>
  <stages>
    <!-- stage 0 -->
    <_>
      <maxWeakCount>1</maxWeakCount>
      <stageThreshold>9.0476191043853760e-001</stageThreshold>
      <weakClassifiers>
        <_>
          <internalNodes>
            0 -1 0 1.2918186187744141e-001</internalNodes>
          <leafValues>
            -1. 9.0476191043853760e-001</leafValues></_></weakClassifiers></_>
    <!-- stage 1 -->
    <_>
      <maxWeakCount>2</maxWeakCount>
      <stageThreshold>-7.6719164848327637e-002</stageThreshold>
      <weakClassifiers>
        <_>
          <internalNodes>
            0 -1 1 -4.6390086412429810e-002</internalNodes>
          <leafValues>
            8.9999997615814209e-001 -9.8895025253295898e-001</leafValues></_>
        <_>
          <internalNodes>
            0 -1 3 -2.8166400268673897e-002</internalNodes>
          <leafValues>
            9.2539817094802856e-001 -9.7671914100646973e-001</leafValues></_></weakClassifiers></_>
    <!-- stage 2 -->
    <_>
      <maxWeakCount>2</maxWeakCount>
      <stageThreshold>-1.9575937092304230e-001</stageThreshold>
      <weakClassifiers>
        <_>
          <internalNodes>
            0 -1 5 5.8996468782424927e-002</internalNodes>
          <leafValues>
            -9.8901098966598511e-001 1.</leafValues></_>
        <_>
          <internalNodes>
            0 -1 4 5.6669354438781738e-002</internalNodes>
          <leafValues>
            -1. 7.9325163364410400e-001</leafValues></_></weakClassifiers></_>
    <!-- stage 3 -->
    <_>
      <maxWeakCount>2</maxWeakCount>
      <stageThreshold>-6.5840356051921844e-002</stageThreshold>
      <weakClassifiers>
        <_>
          <internalNodes>
            0 -1 2 6.3003554940223694e-002</internalNodes>
          <leafValues>
            -9.8901098966598511e-001 1.</leafValues></_>
        <_>
          <internalNodes>
            0 -1 6 1.0867489874362946e-001</internalNodes>
          <leafValues>
            -9.8907035589218140e-001 9.2317062616348267e-001</leafValues></_></weakClassifiers></_></stages>
  <features>
    <_>
      <rects>
        <_>
          0 2 28 39 -1.</_>
        <_>
          7 2 14 39 2.</_></rects>
      <tilted>0</tilted></_>
    <_>
      <rects>
        <_>
          9 40 25 10 -1.</_>
        <_>
          9 45 25 5 2.</_></rects>
      <tilted>0</tilted></_>
    <_>
      <rects>
        <_>
          11 2 16 10 -1.</_>
        <_>
          15 6 8 10 2.</_></rects>
      <tilted>1</tilted></_>
    <_>
      <rects>
        <_>
          12 42 19 8 -1.</_>
        <_>
          12 46 19 4 2.</_></rects>
      <tilted>0</tilted></_>
    <_>
      <rects>
        <_>
          17 0 27 12 -1.</_>
        <_>
          17 6 27 6 2.</_></rects>
      <tilted>0</tilted></_>
    <_>
      <rects>
        <_>
          20 8 30 16 -1.</_>
        <_>
          20 8 15 8 2.</_>
        <_>
          35 16 15 8 2.</_></rects>
      <tilted>0</tilted></_>
    <_>
      <rects>
        <_>
          22 11 28 28 -1.</_>
        <_>
          29 11 14 28 2.</_></rects>
      <tilted>0</tilted></_></features></cascade>
</opencv_storage>
