<?xml version="1.0"?>
<opencv_storage>
<cascade>
  <stageType>BOOST</stageType>
  <featureType>HAAR</featureType>
  <height>50</height>
  <width>50</width>
  <stageParams>
    <boostType>GAB</boostType>
    <minHitRate>9.9500000476837158e-001</minHitRate>
    <maxFalseAlarm>5.0000000000000000e-001</maxFalseAlarm>
    <weightTrimRate>9.4999999999999996e-001</weightTrimRate>
    <maxDepth>1</maxDepth>
    <maxWeakCount>100</maxWeakCount></stageParams>
  <featureParams>
    <maxCatCount>0</maxCatCount>
    <featSize>1</featSize>
    <mode>ALL</mode></featureParams>
  <stageNum>8</stageNum>
  <stages>
    <!-- stage 0 -->
    <_>
      <maxWeakCount>2</maxWeakCount>
      <stageThreshold>-2.2717407345771790e-001</stageThreshold>
      <weakClassifiers>
        <_>
          <internalNodes>
            0 -1 1 5.0021380186080933e-002</internalNodes>
          <leafValues>
            -9.8901098966598511e-001 8.2608693838119507e-001</leafValues></_>
        <_>
          <internalNodes>
            0 -1 17 -1.0564155876636505e-001</internalNodes>
          <leafValues>
            7.6183694601058960e-001 -9.7543382644653320e-001</leafValues></_></weakClassifiers></_>
    <!-- stage 1 -->
    <_>
      <maxWeakCount>2</maxWeakCount>
      <stageThreshold>-7.6538807153701782e-001</stageThreshold>
      <weakClassifiers>
        <_>
          <internalNodes>
            0 -1 4 -8.4864370524883270e-002</internalNodes>
          <leafValues>
            8.1081077456474304e-002 -9.7619044780731201e-001</leafValues></_>
        <_>
          <internalNodes>
            0 -1 16 2.2409041412174702e-003</internalNodes>
          <leafValues>
            -8.4646916389465332e-001 6.7589735984802246e-001</leafValues></_></weakClassifiers></_>
    <!-- stage 2 -->
    <_>
      <maxWeakCount>3</maxWeakCount>
      <stageThreshold>-1.0540413856506348e+000</stageThreshold>
      <weakClassifiers>
        <_>
          <internalNodes>
            0 -1 11 9.4604436308145523e-003</internalNodes>
          <leafValues>
            -8.8601034879684448e-001 8.3333331346511841e-001</leafValues></_>
        <_>
          <internalNodes>
            0 -1 7 -7.2058886289596558e-003</internalNodes>
          <leafValues>
            5.8822709321975708e-001 -7.7225315570831299e-001</leafValues></_>
        <_>
          <internalNodes>
            0 -1 0 2.2710219025611877e-001</internalNodes>
          <leafValues>
            -7.5625807046890259e-001 6.4562326669692993e-001</leafValues></_></weakClassifiers></_>
    <!-- stage 3 -->
    <_>
      <maxWeakCount>3</maxWeakCount>
      <stageThreshold>-1.1727570295333862e+000</stageThreshold>
      <weakClassifiers>
        <_>
          <internalNodes>
            0 -1 13 4.9987039528787136e-003</internalNodes>
          <leafValues>
            -8.8481676578521729e-001 5.7142859697341919e-001</leafValues></_>
        <_>
          <internalNodes>
            0 -1 12 3.1680655665695667e-003</internalNodes>
          <leafValues>
            -8.4266787767410278e-001 4.0124425292015076e-001</leafValues></_>
        <_>
          <internalNodes>
            0 -1 3 1.3029295206069946e-001</internalNodes>
          <leafValues>
            -6.8918454647064209e-001 6.6703218221664429e-001</leafValues></_></weakClassifiers></_>
    <!-- stage 4 -->
    <_>
      <maxWeakCount>2</maxWeakCount>
      <stageThreshold>-5.5961263179779053e-001</stageThreshold>
      <weakClassifiers>
        <_>
          <internalNodes>
            0 -1 10 2.5098542682826519e-003</internalNodes>
          <leafValues>
            -8.6734694242477417e-001 1.</leafValues></_>
        <_>
          <internalNodes>
            0 -1 15 4.2785744881257415e-004</internalNodes>
          <leafValues>
            -1. 3.0773431062698364e-001</leafValues></_></weakClassifiers></_>
    <!-- stage 5 -->
    <_>
      <maxWeakCount>3</maxWeakCount>
      <stageThreshold>-1.2891550064086914e+000</stageThreshold>
      <weakClassifiers>
        <_>
          <internalNodes>
            0 -1 9 -1.6579568618908525e-003</internalNodes>
          <leafValues>
            1. -8.6734694242477417e-001</leafValues></_>
        <_>
          <internalNodes>
            0 -1 6 3.6895789206027985e-002</internalNodes>
          <leafValues>
            -8.1317108869552612e-001 5.1789110898971558e-001</leafValues></_>
        <_>
          <internalNodes>
            0 -1 5 8.2062818109989166e-003</internalNodes>
          <leafValues>
            -1. 3.9136305451393127e-001</leafValues></_></weakClassifiers></_>
    <!-- stage 6 -->
    <_>
      <maxWeakCount>2</maxWeakCount>
      <stageThreshold>-7.9358631372451782e-001</stageThreshold>
      <weakClassifiers>
        <_>
          <internalNodes>
            0 -1 8 3.0966404080390930e-001</internalNodes>
          <leafValues>
            -9.7560977935791016e-001 -2.4390242993831635e-002</leafValues></_>
        <_>
          <internalNodes>
            0 -1 18 5.4531893692910671e-003</internalNodes>
          <leafValues>
            -7.6919603347778320e-001 6.7517536878585815e-001</leafValues></_></weakClassifiers></_>
    <!-- stage 7 -->
    <_>
      <maxWeakCount>2</maxWeakCount>
      <stageThreshold>-5.0175994634628296e-001</stageThreshold>
      <weakClassifiers>
        <_>
          <internalNodes>
            0 -1 14 6.1758313328027725e-002</internalNodes>
          <leafValues>
            -8.6597937345504761e-001 6.3636362552642822e-001</leafValues></_>
        <_>
          <internalNodes>
            0 -1 2 2.6734858751296997e-002</internalNodes>
          <leafValues>
            -9.0653681755065918e-001 3.6421945691108704e-001</leafValues></_></weakClassifiers></_></stages>
  <features>
    <_>
      <rects>
        <_>
          0 4 28 37 -1.</_>
        <_>
          14 4 14 37 2.</_></rects>
      <tilted>0</tilted></_>
    <_>
      <rects>
        <_>
          0 17 14 16 -1.</_>
        <_>
          7 17 7 16 2.</_></rects>
      <tilted>0</tilted></_>
    <_>
      <rects>
        <_>
          4 40 38 6 -1.</_>
        <_>
          23 40 19 6 2.</_></rects>
      <tilted>0</tilted></_>
    <_>
      <rects>
        <_>
          5 0 11 42 -1.</_>
        <_>
          5 14 11 14 3.</_></rects>
      <tilted>0</tilted></_>
    <_>
      <rects>
        <_>
          9 36 34 14 -1.</_>
        <_>
          9 43 34 7 2.</_></rects>
      <tilted>0</tilted></_>
    <_>
      <rects>
        <_>
          10 24 3 8 -1.</_>
        <_>
          10 24 3 4 2.</_></rects>
      <tilted>1</tilted></_>
    <_>
      <rects>
        <_>
          12 1 18 10 -1.</_>
        <_>
          12 6 18 5 2.</_></rects>
      <tilted>0</tilted></_>
    <_>
      <rects>
        <_>
          12 28 9 12 -1.</_>
        <_>
          15 32 3 4 9.</_></rects>
      <tilted>0</tilted></_>
    <_>
      <rects>
        <_>
          13 0 36 42 -1.</_>
        <_>
          25 14 12 14 9.</_></rects>
      <tilted>0</tilted></_>
    <_>
      <rects>
        <_>
          13 18 2 6 -1.</_>
        <_>
          13 20 2 2 3.</_></rects>
      <tilted>0</tilted></_>
    <_>
      <rects>
        <_>
          13 24 8 3 -1.</_>
        <_>
          12 25 8 1 3.</_></rects>
      <tilted>1</tilted></_>
    <_>
      <rects>
        <_>
          16 2 12 9 -1.</_>
        <_>
          16 5 12 3 3.</_></rects>
      <tilted>0</tilted></_>
    <_>
      <rects>
        <_>
          19 39 9 8 -1.</_>
        <_>
          19 41 9 4 2.</_></rects>
      <tilted>0</tilted></_>
    <_>
      <rects>
        <_>
          21 7 16 4 -1.</_>
        <_>
          21 7 8 2 2.</_>
        <_>
          29 9 8 2 2.</_></rects>
      <tilted>0</tilted></_>
    <_>
      <rects>
        <_>
          27 2 21 12 -1.</_>
        <_>
          34 6 7 4 9.</_></rects>
      <tilted>0</tilted></_>
    <_>
      <rects>
        <_>
          29 3 3 10 -1.</_>
        <_>
          30 4 1 10 3.</_></rects>
      <tilted>1</tilted></_>
    <_>
      <rects>
        <_>
          31 6 2 9 -1.</_>
        <_>
          31 9 2 3 3.</_></rects>
      <tilted>0</tilted></_>
    <_>
      <rects>
        <_>
          36 3 14 44 -1.</_>
        <_>
          43 3 7 44 2.</_></rects>
      <tilted>0</tilted></_>
    <_>
      <rects>
        <_>
          45 20 4 8 -1.</_>
        <_>
          43 22 4 4 2.</_></rects>
      <tilted>1</tilted></_></features></cascade>
</opencv_storage>
