<?xml version="1.0"?>
<opencv_storage>
<cascade>
  <stageType>BOOST</stageType>
  <featureType>HAAR</featureType>
  <height>50</height>
  <width>50</width>
  <stageParams>
    <boostType>GAB</boostType>
    <minHitRate>9.9500000476837158e-001</minHitRate>
    <maxFalseAlarm>5.0000000000000000e-001</maxFalseAlarm>
    <weightTrimRate>9.4999999999999996e-001</weightTrimRate>
    <maxDepth>1</maxDepth>
    <maxWeakCount>100</maxWeakCount></stageParams>
  <featureParams>
    <maxCatCount>0</maxCatCount>
    <featSize>1</featSize>
    <mode>ALL</mode></featureParams>
  <stageNum>4</stageNum>
  <stages>
    <!-- stage 0 -->
    <_>
      <maxWeakCount>2</maxWeakCount>
      <stageThreshold>-3.8532799482345581e-001</stageThreshold>
      <weakClassifiers>
        <_>
          <internalNodes>
            0 -1 0 2.5910526514053345e-002</internalNodes>
          <leafValues>
            -9.8974359035491943e-001 6.0000002384185791e-001</leafValues></_>
        <_>
          <internalNodes>
            0 -1 5 -4.1276495903730392e-003</internalNodes>
          <leafValues>
            6.2920469045639038e-001 -9.8532801866531372e-001</leafValues></_></weakClassifiers></_>
    <!-- stage 1 -->
    <_>
      <maxWeakCount>2</maxWeakCount>
      <stageThreshold>-1.6388911008834839e-001</stageThreshold>
      <weakClassifiers>
        <_>
          <internalNodes>
            0 -1 2 2.6027408894151449e-003</internalNodes>
          <leafValues>
            -9.5024877786636353e-001 1.</leafValues></_>
        <_>
          <internalNodes>
            0 -1 1 -1.4879271388053894e-002</internalNodes>
          <leafValues>
            7.8635966777801514e-001 -1.</leafValues></_></weakClassifiers></_>
    <!-- stage 2 -->
    <_>
      <maxWeakCount>2</maxWeakCount>
      <stageThreshold>-2.6786983013153076e-001</stageThreshold>
      <weakClassifiers>
        <_>
          <internalNodes>
            0 -1 4 -2.2138793021440506e-002</internalNodes>
          <leafValues>
            6.6666668653488159e-001 -9.5979899168014526e-001</leafValues></_>
        <_>
          <internalNodes>
            0 -1 7 1.8748624715954065e-003</internalNodes>
          <leafValues>
            -9.3453651666641235e-001 8.6335468292236328e-001</leafValues></_></weakClassifiers></_>
    <!-- stage 3 -->
    <_>
      <maxWeakCount>2</maxWeakCount>
      <stageThreshold>-3.8136073946952820e-001</stageThreshold>
      <weakClassifiers>
        <_>
          <internalNodes>
            0 -1 3 -3.1275514513254166e-002</internalNodes>
          <leafValues>
            6.6666668653488159e-001 -9.5979899168014526e-001</leafValues></_>
        <_>
          <internalNodes>
            0 -1 6 -8.9822886511683464e-003</internalNodes>
          <leafValues>
            5.7843828201293945e-001 -9.5898312330245972e-001</leafValues></_></weakClassifiers></_></stages>
  <features>
    <_>
      <rects>
        <_>
          10 0 40 1 -1.</_>
        <_>
          20 10 20 1 2.</_></rects>
      <tilted>1</tilted></_>
    <_>
      <rects>
        <_>
          11 37 14 6 -1.</_>
        <_>
          11 40 14 3 2.</_></rects>
      <tilted>0</tilted></_>
    <_>
      <rects>
        <_>
          12 43 20 4 -1.</_>
        <_>
          12 44 20 2 2.</_></rects>
      <tilted>0</tilted></_>
    <_>
      <rects>
        <_>
          19 6 12 26 -1.</_>
        <_>
          19 6 6 13 2.</_>
        <_>
          25 19 6 13 2.</_></rects>
      <tilted>0</tilted></_>
    <_>
      <rects>
        <_>
          27 0 8 5 -1.</_>
        <_>
          27 0 4 5 2.</_></rects>
      <tilted>1</tilted></_>
    <_>
      <rects>
        <_>
          31 36 14 1 -1.</_>
        <_>
          38 36 7 1 2.</_></rects>
      <tilted>0</tilted></_>
    <_>
      <rects>
        <_>
          32 35 6 8 -1.</_>
        <_>
          35 35 3 8 2.</_></rects>
      <tilted>0</tilted></_>
    <_>
      <rects>
        <_>
          36 18 3 4 -1.</_>
        <_>
          37 19 1 4 3.</_></rects>
      <tilted>1</tilted></_></features></cascade>
</opencv_storage>
